-4,78E+233	1,58E+233	9,66E+232	-2,68E+234	5,66E+233	-3,16E+234	-8,36E+233	-3,28E+234	-5,84E+234	9,22E+234	2,82E+234	2,30E+233	3,52E+234	-2,08E+232	-1,29E+235	-2,64E+235	-5,84E+234	-2,52E+235	-2,96E+232	3,90E+234	-1,15E+234	6,48E+235	-1,46E+235	-1,20E+232	3,32E+232	-2,34E+233	6,20E+234	-2,50E+235	1,30E+231	-1,07E+234	6,80E+233	-7,94E+234	-7,36E+234	9,44E+234	-1,42E+234	-1,96E+233	-2,94E+233	2,12E+234	2,08E+232	7,80E+232	-3,88E+232	-8,48E+234	-2,54E+235	2,32E+233	-6,22E+234	-9,04E+234	4,22E+233	-3,28E+235	6,82E+232	-6,80E+234	-5,20E+234	2,50E+234	1,85E+234	2,44E+233	-2,58E+234	-3,06E+234	-9,18E+234	5,80E+236	-4,70E+231	-2,26E+233	-2,28E+235	-8,66E+234	2,16E+233	-4,62E+234	1,73E+233	8,30E+233	8,16E+233	1,55E+235	6,50E+236	-2,84E+234	-1,38E+235	5,94E+234	-6,54E+235	3,92E+235	4,98E+233	2,80E+231	3,58E+233	1,43E+233	7,48E+232	5,56E+233	-2,58E+233	6,60E+235	-4,76E+233	-3,38E+233	-3,94E+233	2,56E+233	1,21E+235	-7,80E+233	-4,98E+233	-1,31E+233	4,32E+234	5,68E+234	-1,77E+236	1,61E+229	1,57E+231	-6,16E+233	-1,28E+232	-4,92E+233	-1,77E+234	2,58E+233	9,52E+232	-1,78E+235	7,62E+231	7,78E+231	-7,26E+233	1,40E+234	9,62E+233	2,34E+233	2,90E+233	-1,64E+235	-7,92E+234	1,37E+233	2,62E+233	-9,24E+232	-3,00E+234	8,40E+231	-6,66E+233	9,08E+234	3,48E+234	-5,66E+235	7,88E+233	5,30E+233	-2,34E+232	-3,40E+233	1,16E+235	-1,41E+234	1,29E+232	-3,08E+232	-3,38E+234	-1,54E+233	8,26E+232	4,60E+233	-6,00E+232	1,69E+233	-3,28E+235	-4,56E+232	1,79E+234	3,48E+233	6,44E+233	-4,18E+235	-3,38E+235	2,16E+235	4,28E+235	7,52E+234	-1,59E+234	-2,86E+232	-4,54E+235	1,57E+235	-1,17E+235	1,37E+231	-8,46E+233	2,80E+229	1,65E+235